solver_type L2R_L1LOSS_SVC_DUAL
nr_class 2
label 1 0
nr_feature 327
bias 1.000000000000000
w
-0.1464447384973348 
-0.5403182385524256 
-0.03607472056293901 
-0.1765278581193673 
-0.04819600538105289 
-0.02788666154490946 
0.2444281341241828 
-0.1189208210563029 
-0.08989263018800514 
-0.1830188024593696 
-0.09264928105147877 
-0.1066900071999190 
-0.1239980899432539 
0.2111238480892496 
-0.4251399607645450 
-0.09791917797438661 
0.06577122604831782 
0.01821341929967780 
-0.04771090400392188 
-0.1419037780093437 
-0.09042621304676757 
-0.03972907789117005 
-0.07036649672565008 
0.06928239429187982 
-0.06919350348741729 
0.1189926274691163 
0.1550036399964500 
-0.2594372244804614 
-0.1013074501864786 
-0.07717535993573023 
0.08731023730513880 
-0.01409927023967836 
0.05321562859543416 
-0.2644062059940798 
-0.2122181547722543 
-0.1761356891687032 
-0.07836040156242034 
0.05904499367474270 
0.1711424391319803 
-0.1540866159238420 
-0.03242285618853912 
-0.1240444719162759 
-0.1076109136668291 
-0.1086152010398510 
-0.2678075103151614 
0.04594298158927031 
-0.1143505591248555 
0.1722417214225548 
-0.1008569723941474 
0.05455070693124954 
-0.2648568647834058 
0.04689183187390423 
0.06236418482765241 
-0.008155798916865006 
-0.07395709077242466 
-0.09196420708627630 
-0.05910687684494217 
-0.09173370116581404 
-0.09152032543732982 
-0.1774673247946049 
0.05345836669228750 
0.05783512406613586 
0.1204422401276330 
-0.1010168056054560 
-0.1149187442593898 
0.07548398208358437 
0.003265492764401776 
-0.01917718555051915 
-0.05404132415590342 
0.01540593281562485 
-0.06368542381635528 
0.05680450169325543 
0.03308297627311045 
0.1001697282421033 
-0.2230885452535807 
-0.07541676948758781 
-0.09971470905136591 
0.03678199038956784 
0.03896656517662316 
-0.08440731240027960 
-0.08140675543995403 
-0.08873497525464245 
0.06823772765649463 
-0.1649410199126954 
0.03951408943075747 
0.2367981210683550 
0.1324854135545581 
-0.5138184275287586 
-0.1832318431650759 
-0.1485228559039626 
0.02450675161053730 
-0.3984076882842976 
0.09238765350761165 
0.2258191751136275 
-0.05569459221125025 
-0.1529562223735208 
-0.1430486379889192 
0.1305999146565978 
0.2851598850552174 
0.4513498017787114 
-0.2190851178169463 
-0.5888914759031850 
0.6582398019700713 
-0.2279445609240122 
0.04964994906526318 
0.07977081532786337 
-0.07254520234708768 
-0.09220511390010491 
0.2448318773474523 
-0.07035369611188559 
-0.1846371483378380 
-0.1477214835221297 
0.04696117273684033 
-0.1051609280324222 
0.2054451378252343 
0.08308831744721928 
-0.1868528239618273 
0.04947327359346552 
-0.03754607577290883 
0.09454479465028283 
-0.2287237721457253 
0.3241448068801915 
-0.1986672554309786 
-0.2782480114270693 
-0.004511839357584846 
0.1261055852877644 
-0.2283068596493938 
-0.1658105915578764 
-0.08867166167859329 
-0.08267435610455832 
0.1984205875485871 
-0.03875100736922036 
0.2094130228559271 
-0.06580947386945774 
-0.3115064944639929 
-0.3145666963211302 
-0.2497040876644326 
-0.4340833307082379 
0.6663807287197688 
-0.1612968433727207 
-0.4506762124637231 
-0.3385061415718589 
-0.1621192871305495 
-0.1080567104813550 
-0.3599498612653711 
-0.1941379053153204 
-0.2322930842765628 
-0.2279049512373025 
-0.3455458429023388 
-0.2162801749667605 
0.2060428941187270 
-0.2653459247796088 
-0.2430675779146099 
-0.3956630540619536 
0.4454993458203494 
-0.2773438974835455 
-0.1358226832160082 
0.1621002940118484 
0.1214964518862902 
-0.6381044987323500 
-0.5285663541829655 
0.2885852453534321 
0.09639136972978203 
-0.3456786260319401 
0.2210330605105317 
-0.5327067737382181 
-0.3922782523703541 
0.2178316958226849 
0.2969466116179694 
0.2178316958226849 
-0.2283949739314460 
-0.1517593289872557 
-0.3760676489589437 
0.1140967363388620 
0.2814040729272123 
-0.1898552221297559 
0.08539717227021025 
0.2804040729272123 
-0.2400599288156023 
0.1263506528068317 
0.1707158793556795 
0.6903414267642075 
0.2804040729272123 
0.2804040729272123 
-0.4334780511042438 
-0.3376769903104974 
0.1317623996948316 
0.2056076514631351 
0.3268220907615173 
-0.2849063576401011 
-0.1845173173214862 
0.3242880123876187 
-0.3431650062694434 
0.5067221383884497 
-0.1329879159809770 
0.1204234696598056 
-0.3541480206793586 
-0.8940254272801407 
0.1511968878447107 
0.2189761542906069 
-0.2664304879282284 
-0.6024246987422378 
0.2804040729272123 
0.2804040729272123 
0.3713271757823232 
-0.2466903461958918 
0.1625610537482766 
0.3355835176955397 
-0.4557499328043568 
0.7549244380490482 
0.1642334605630849 
-0.2224259314703088 
0.2804040729272123 
-0.1858668754003516 
0.1301977301701844 
-0.2859819188080849 
-0.3096475339981690 
-0.1506954260025839 
-0.1796240999351230 
-0.3020770788995329 
-0.1637341440253754 
0.3580612816166560 
-0.3249362665527077 
-0.3552923909570237 
-0.2368209378741989 
-0.3412186984797932 
0.1186961686464988 
0.2804040729272123 
-0.3028364860657273 
0.2804040729272123 
-0.6052134615966106 
-0.3902899277105146 
0.3580321602838595 
0.1158827470984252 
-0.3892573042079494 
-0.2749608855529576 
-0.2791389864907283 
-0.2290793331022312 
0.2804040729272123 
-0.2922219091541136 
-0.1560499752792887 
-0.5325721896824643 
-0.2714147282085824 
0.1208349581561903 
0.1831879778751679 
-0.4293923121748935 
-0.2870892590209011 
-0.3539964242623883 
0.2136109643092918 
0.3008160142973692 
-0.2608446910182679 
-0.2035619483340887 
0.3589807084023151 
0.2391883407546937 
-0.3144424784738327 
-0.2746254731000445 
0.3569807084023151 
0.2186737194793547 
-0.2912915620535793 
0.4230182513355468 
-0.2457991762016069 
-0.2541020592596021 
-0.3171724362266033 
0.5867962910180976 
0.3970233726496472 
-0.3089043089214170 
-0.4046000094423802 
-0.3038426329216328 
0.2102314193401433 
0.3455754687829789 
-0.7548805775526655 
-0.3869510603379797 
0.1923134610612338 
0.1683554612853747 
0.2532391662306965 
0.3545815095827174 
0.3966890532753003 
0.2151057479379653 
0.1383459867276840 
0.1928767144630379 
-0.8258545238486050 
0.3371978916548460 
-0.3774080951280969 
-0.4980556127234027 
-0.2581158497561665 
-0.2852427081262545 
-0.3694177263441619 
-0.3458422442473171 
-0.6257225245572413 
0.5609979246604067 
-0.5005094158453273 
0.5658932323760304 
0.3449981472799520 
-0.2758569626126713 
-0.2365035443729042 
-0.2818579472881022 
-0.4435365084105635 
-0.8743562695491909 
0.9764058806382940 
0.1680562437923411 
0.4275292916778913 
0.2145187523723473 
-0.5804900243782938 
1.411330093843452 
0.5488986094395630 
-0.3365745169041336 
-0.4611870467694276 
0.5411962179690872 
-0.5505890705755135 
0.2657347527478737 
0.6868558557384952 
0.2827571049692991 
0.6088550260368115 
0.6240939595496208 
0.5226120362093909 
0.5272299572089460 
0.5252299572089460 
0.4273286957333615 
0.3468384657505189 
0.5830543616684541 
0.7137113758432996 
0.8083935324785824 
0.7763696791045068 
0.5667862632788874 
0.5938187653908454 
0.8422231259108292 
0.001000000000000000 
-0.06533498516676667 
